Language model created by QuickLM on Thu May 15 14:39:56 EDT 2014
Copyright (c) 1996-2010 Carnegie Mellon University and Alexander I. Rudnicky

The model is in standard ARPA format, designed by Doug Paul while he was at MITRE.

The code that was used to produce this language model is available in Open Source.
Please visit http://www.speech.cs.cmu.edu/tools/ for more information

The (fixed) discount mass is 0.5. The backoffs are computed using the ratio method.
This model based on a corpus of 19 sentences and 74 words

\data\
ngram 1=74
ngram 2=124
ngram 3=127

\1-grams:
-1.2450 </s> -0.3010
-1.2450 <s> -0.2530
-2.0466 A -0.2878
-2.5237 AGAIN. -0.2756
-2.5237 ALL -0.2945
-2.5237 ALWAYS -0.2945
-2.5237 AM -0.2997
-2.5237 AS -0.2851
-2.5237 AT -0.2997
-2.2227 BACKWARD -0.2984
-2.2227 BACKWARD. -0.2756
-2.5237 BE -0.2945
-2.5237 BEFORE -0.2971
-2.5237 BETTER -0.2997
-2.5237 CAN -0.2997
-2.5237 CAR -0.2945
-2.5237 CLEARLY -0.2984
-2.5237 DIRECTION. -0.2756
-2.2227 DO -0.2958
-2.5237 DOING -0.2997
-2.5237 FELL -0.2984
-2.0466 FORWARD -0.2838
-2.5237 FORWARD. -0.2756
-2.5237 GET -0.2971
-2.5237 GO -0.2984
-2.2227 HAVE -0.2811
-2.2227 HE -0.2945
-2.5237 HELPED -0.2984
-2.5237 HOW -0.2851
-2.2227 I -0.2984
-2.0466 IN -0.2905
-2.2227 IS -0.2984
-2.5237 IT -0.2997
-2.5237 IT'S -0.2997
-2.5237 IT. -0.2756
-1.9217 LEFT. -0.2756
-2.5237 LOOK -0.2971
-2.5237 LOOKING -0.2971
-2.5237 MAN -0.2971
-2.2227 ME -0.2971
-1.9217 MOVE -0.2892
-2.2227 MOVE. -0.2756
-2.2227 MOVING -0.2918
-2.5237 MY -0.2958
-2.5237 NEVER -0.2997
-2.5237 NOT -0.2997
-2.5237 OCCURRED -0.2851
-2.5237 ON. -0.2756
-2.5237 ONE -0.2997
-2.5237 ORDERED -0.2851
-2.5237 PLACE. -0.2756
-1.8248 RIGHT -0.2783
-2.0466 RIGHT. -0.2756
-2.5237 SAME -0.2997
-2.2227 SEE -0.2932
-2.5237 SEEING -0.2971
-2.5237 SOMETIMES -0.2971
-2.5237 SOON. -0.2756
-2.5237 STEP. -0.2756
-2.5237 SUPPOSED -0.2851
-2.5237 THAT -0.2984
-1.8248 THE -0.2905
-2.5237 THEY -0.2997
-2.5237 THING -0.2984
-2.5237 TIME -0.2984
-1.4446 TO -0.2797
-1.8248 TREVOR -0.2905
-1.9217 TREVOR,MOVE -0.2851
-1.8248 WAS -0.2742
-2.5237 WE'D -0.2997
-2.5237 WERE -0.2997
-2.5237 WHAT’S -0.2971
-2.0466 YOU -0.2958
-2.5237 YOUR -0.2984

\2-grams:
-1.5798 <s> HE 0.0000
-1.2788 <s> I 0.0000
-1.5798 <s> IT 0.0000
-1.5798 <s> IT'S 0.0000
-1.5798 <s> SOMETIMES 0.0000
-1.2788 <s> THE -0.2041
-1.5798 <s> THEY 0.0000
-1.5798 <s> TO -0.2825
-0.9777 <s> TREVOR -0.0792
-0.9777 <s> TREVOR,MOVE 0.0000
-1.5798 <s> WE'D 0.0000
-0.7782 A MOVE -0.2430
-0.7782 A RIGHT -0.2041
-0.7782 A THING 0.0000
-0.3010 AGAIN. </s> -0.3010
-0.3010 ALL THE -0.2553
-0.3010 ALWAYS RIGHT -0.2041
-0.3010 AM LOOKING 0.0000
-0.3010 AS TO -0.2825
-0.3010 AT ALL 0.0000
-0.6021 BACKWARD BEFORE 0.0000
-0.6021 BACKWARD DIRECTION. 0.0000
-0.3010 BACKWARD. </s> -0.3010
-0.3010 BE RIGHT -0.2553
-0.3010 BEFORE YOU -0.2218
-0.3010 BETTER GET 0.0000
-0.3010 CAN CLEARLY 0.0000
-0.3010 CAR WAS -0.2041
-0.3010 CLEARLY SEE -0.1761
-0.3010 DIRECTION. </s> -0.3010
-0.6021 DO A -0.2218
-0.6021 DO WHAT’S 0.0000
-0.3010 DOING IT. 0.0000
-0.3010 FELL BACKWARD. 0.0000
-0.7782 FORWARD ONE 0.0000
-0.4771 FORWARD TO -0.2632
-0.3010 FORWARD. </s> -0.3010
-0.3010 GET A -0.2218
-0.3010 GO BACKWARD -0.1761
-0.6021 HAVE A -0.2218
-0.6021 HAVE TO -0.2825
-0.3010 HE WAS -0.2041
-0.3010 HELPED ME -0.1761
-0.3010 HOW TO -0.2430
-0.6021 I AM 0.0000
-0.6021 I LOOK 0.0000
-0.7782 IN BACKWARD -0.1761
-0.7782 IN DOING 0.0000
-0.7782 IN THE -0.2041
-0.6021 IS ALWAYS 0.0000
-0.6021 IS NOT 0.0000
-0.3010 IT NEVER 0.0000
-0.3010 IT'S YOUR 0.0000
-0.3010 IT. </s> -0.3010
-0.3010 LEFT. </s> -0.3010
-0.3010 LOOK FORWARD -0.1249
-0.3010 LOOKING FORWARD -0.1249
-0.3010 MAN IN -0.2218
-0.6021 ME MOVE. 0.0000
-0.6021 ME THAT 0.0000
-0.9031 MOVE FORWARD. 0.0000
-0.9031 MOVE LEFT. 0.0000
-0.9031 MOVE ON. 0.0000
-0.9031 MOVE RIGHT. 0.0000
-0.3010 MOVE. </s> -0.3010
-0.6021 MOVING IN -0.2218
-0.6021 MOVING LEFT. 0.0000
-0.3010 MY LEFT. 0.0000
-0.3010 NEVER OCCURRED 0.0000
-0.3010 NOT AT 0.0000
-0.3010 OCCURRED TO -0.2825
-0.3010 ON. </s> -0.3010
-0.3010 ONE STEP. 0.0000
-0.3010 ORDERED TO -0.2430
-0.3010 PLACE. </s> -0.3010
-1.0000 RIGHT IN -0.2218
-1.0000 RIGHT MAN 0.0000
-1.0000 RIGHT PLACE. 0.0000
-0.6990 RIGHT TO -0.2632
-0.3010 RIGHT. </s> -0.3010
-0.3010 SAME AS 0.0000
-0.6021 SEE HOW 0.0000
-0.6021 SEE TREVOR -0.2553
-0.3010 SEEING YOU -0.2218
-0.3010 SOMETIMES YOU -0.2218
-0.3010 SOON. </s> -0.3010
-0.3010 STEP. </s> -0.3010
-0.3010 SUPPOSED TO -0.2430
-0.3010 THAT HE 0.0000
-1.0000 THE CAR 0.0000
-0.6990 THE RIGHT -0.2041
-1.0000 THE SAME 0.0000
-1.0000 THE TIME 0.0000
-0.3010 THEY WERE 0.0000
-0.3010 THING IS -0.1761
-0.3010 TIME IS -0.1761
-1.3802 TO BE 0.0000
-1.0792 TO DO 0.0000
-1.3802 TO GO 0.0000
-1.3802 TO HAVE -0.1761
-1.3802 TO ME -0.1761
-0.9031 TO MOVE -0.0969
-1.3802 TO MY 0.0000
-1.3802 TO SEE -0.1761
-1.3802 TO SEEING 0.0000
-1.0000 TREVOR AGAIN. 0.0000
-1.0000 TREVOR FELL 0.0000
-1.0000 TREVOR HELPED 0.0000
-0.6990 TREVOR WAS -0.1461
-0.9031 TREVOR,MOVE BACKWARD. 0.0000
-0.9031 TREVOR,MOVE FORWARD -0.2218
-0.9031 TREVOR,MOVE LEFT. 0.0000
-0.9031 TREVOR,MOVE RIGHT. 0.0000
-0.6990 WAS MOVING 0.0000
-1.0000 WAS ORDERED 0.0000
-1.0000 WAS THE -0.2041
-1.0000 WAS TO -0.2825
-0.3010 WE'D BETTER 0.0000
-0.3010 WERE SUPPOSED 0.0000
-0.3010 WHAT’S RIGHT. 0.0000
-0.7782 YOU CAN 0.0000
-0.7782 YOU HAVE -0.1761
-0.7782 YOU SOON. 0.0000
-0.3010 YOUR MOVE. 0.0000

\3-grams:
-0.3010 <s> HE WAS
-0.6021 <s> I AM
-0.6021 <s> I LOOK
-0.3010 <s> IT NEVER
-0.3010 <s> IT'S YOUR
-0.3010 <s> SOMETIMES YOU
-0.6021 <s> THE CAR
-0.6021 <s> THE TIME
-0.3010 <s> THEY WERE
-0.3010 <s> TO HAVE
-0.9031 <s> TREVOR FELL
-0.9031 <s> TREVOR HELPED
-0.6021 <s> TREVOR WAS
-0.9031 <s> TREVOR,MOVE BACKWARD.
-0.9031 <s> TREVOR,MOVE FORWARD
-0.9031 <s> TREVOR,MOVE LEFT.
-0.9031 <s> TREVOR,MOVE RIGHT.
-0.3010 <s> WE'D BETTER
-0.3010 A MOVE ON.
-0.3010 A RIGHT TO
-0.3010 A THING IS
-0.3010 ALL THE SAME
-0.3010 ALWAYS RIGHT TO
-0.3010 AM LOOKING FORWARD
-0.3010 AS TO BE
-0.3010 AT ALL THE
-0.3010 BACKWARD BEFORE YOU
-0.3010 BACKWARD DIRECTION. </s>
-0.3010 BE RIGHT IN
-0.3010 BEFORE YOU CAN
-0.3010 BETTER GET A
-0.3010 CAN CLEARLY SEE
-0.3010 CAR WAS MOVING
-0.3010 CLEARLY SEE HOW
-0.3010 DO A THING
-0.3010 DO WHAT’S RIGHT.
-0.3010 DOING IT. </s>
-0.3010 FELL BACKWARD. </s>
-0.3010 FORWARD ONE STEP.
-0.6021 FORWARD TO SEE
-0.6021 FORWARD TO SEEING
-0.3010 GET A MOVE
-0.3010 GO BACKWARD BEFORE
-0.3010 HAVE A RIGHT
-0.3010 HAVE TO GO
-0.6021 HE WAS ORDERED
-0.6021 HE WAS THE
-0.3010 HELPED ME MOVE.
-0.3010 HOW TO MOVE
-0.3010 I AM LOOKING
-0.3010 I LOOK FORWARD
-0.3010 IN BACKWARD DIRECTION.
-0.3010 IN DOING IT.
-0.3010 IN THE RIGHT
-0.3010 IS ALWAYS RIGHT
-0.3010 IS NOT AT
-0.3010 IT NEVER OCCURRED
-0.3010 IT'S YOUR MOVE.
-0.3010 LOOK FORWARD TO
-0.3010 LOOKING FORWARD TO
-0.3010 MAN IN THE
-0.3010 ME MOVE. </s>
-0.3010 ME THAT HE
-0.3010 MOVE FORWARD. </s>
-0.3010 MOVE LEFT. </s>
-0.3010 MOVE ON. </s>
-0.3010 MOVE RIGHT. </s>
-0.3010 MOVING IN BACKWARD
-0.3010 MOVING LEFT. </s>
-0.3010 MY LEFT. </s>
-0.3010 NEVER OCCURRED TO
-0.3010 NOT AT ALL
-0.3010 OCCURRED TO ME
-0.3010 ONE STEP. </s>
-0.3010 ORDERED TO MOVE
-0.3010 RIGHT IN DOING
-0.3010 RIGHT MAN IN
-0.3010 RIGHT PLACE. </s>
-0.3010 RIGHT TO DO
-0.3010 SAME AS TO
-0.3010 SEE HOW TO
-0.3010 SEE TREVOR AGAIN.
-0.3010 SEEING YOU SOON.
-0.3010 SOMETIMES YOU HAVE
-0.3010 SUPPOSED TO MOVE
-0.3010 THAT HE WAS
-0.3010 THE CAR WAS
-0.6021 THE RIGHT MAN
-0.6021 THE RIGHT PLACE.
-0.3010 THE SAME AS
-0.3010 THE TIME IS
-0.3010 THEY WERE SUPPOSED
-0.3010 THING IS NOT
-0.3010 TIME IS ALWAYS
-0.3010 TO BE RIGHT
-0.6021 TO DO A
-0.6021 TO DO WHAT’S
-0.3010 TO GO BACKWARD
-0.3010 TO HAVE A
-0.3010 TO ME THAT
-0.7782 TO MOVE FORWARD.
-0.7782 TO MOVE LEFT.
-0.7782 TO MOVE RIGHT.
-0.3010 TO MY LEFT.
-0.3010 TO SEE TREVOR
-0.3010 TO SEEING YOU
-0.3010 TREVOR AGAIN. </s>
-0.3010 TREVOR FELL BACKWARD.
-0.3010 TREVOR HELPED ME
-0.6021 TREVOR WAS MOVING
-0.6021 TREVOR WAS TO
-0.3010 TREVOR,MOVE BACKWARD. </s>
-0.3010 TREVOR,MOVE FORWARD ONE
-0.3010 TREVOR,MOVE LEFT. </s>
-0.3010 TREVOR,MOVE RIGHT. </s>
-0.6021 WAS MOVING IN
-0.6021 WAS MOVING LEFT.
-0.3010 WAS ORDERED TO
-0.3010 WAS THE RIGHT
-0.3010 WAS TO MY
-0.3010 WE'D BETTER GET
-0.3010 WERE SUPPOSED TO
-0.3010 WHAT’S RIGHT. </s>
-0.3010 YOU CAN CLEARLY
-0.3010 YOU HAVE TO
-0.3010 YOU SOON. </s>
-0.3010 YOUR MOVE. </s>

\end\
